{
    "forest": [
        {
            "h": {
                "w": [
                    71.80827228147811,
                    -28.556937358004816,
                    47.19304974148916,
                    2.977118303982188,
                    -3.7038258392182684
                ],
                "b": 1923.7831650722444
            },
            "l": {
                "h": {
                    "w": [
                        -24.498677168758363,
                        57.61810471873713,
                        4.019054393166677,
                        -30.687404137256834,
                        -0.3646908130464013
                    ],
                    "b": 753.126567704825
                },
                "l": {
                    "h": {
                        "w": [
                            -44.017360586416956,
                            31.28880589395142,
                            69.97684667864148,
                            -45.1574417413367,
                            -18.681409503855363
                        ],
                        "b": 784.6191269263263
                    },
                    "l": {
                        "h": {
                            "w": [
                                41.574229236520374,
                                -49.151280414968355,
                                -46.97080085398953,
                                -24.754964161867484,
                                -13.53356101336027
                            ],
                            "b": -1115.427938045801
                        },
                        "l": {
                            "h": {
                                "w": [
                                    9.073467334235044,
                                    -11.807069733470293,
                                    -39.18477642108557,
                                    29.083041013461695,
                                    114.53122095371083
                                ],
                                "b": 3380.7205868891087
                            },
                            "l": [
                                {
                                    "vector": [
                                        2.6763054128913044,
                                        11.887797578702504,
                                        2.8502908169981733,
                                        16.18075001342512,
                                        19.944648930543913
                                    ],
                                    "data": 4
                                }
                            ],
                            "r": [
                                {
                                    "vector": [
                                        2.1992641496311105,
                                        7.355568363720764,
                                        28.73639387847998,
                                        32.70167011191434,
                                        39.08273511586568
                                    ],
                                    "data": 7
                                }
                            ]
                        },
                        "r": {
                            "h": {
                                "w": [
                                    31.289813664868518,
                                    33.476796761810924,
                                    39.29733496561,
                                    -8.177237880873314,
                                    14.539273458747743
                                ],
                                "b": 1409.9060338104664
                            },
                            "l": [
                                {
                                    "vector": [
                                        23.37916442849589,
                                        3.3043413450561765,
                                        2.5678041748273284,
                                        23.743441454098946,
                                        7.0794137349721264
                                    ],
                                    "data": 9
                                }
                            ],
                            "r": [
                                {
                                    "vector": [
                                        20.936842703517378,
                                        16.261077062838034,
                                        17.937381847307154,
                                        3.7971163275876307,
                                        6.51077395616908
                                    ],
                                    "data": 1
                                }
                            ]
                        }
                    },
                    "r": {
                        "h": {
                            "w": [
                                3.1510918953116995,
                                -23.336816793661807,
                                -28.34428843833527,
                                -110.95230862332326,
                                -44.68158563476014
                            ],
                            "b": -4290.792941633142
                        },
                        "l": [
                            {
                                "vector": [
                                    4.340783072159482,
                                    14.973491396683247,
                                    38.683508401758324,
                                    26.695594836335772,
                                    4.316479096391781
                                ],
                                "data": 8
                            }
                        ],
                        "r": [
                            {
                                "vector": [
                                    0.07725510629605914,
                                    5.796285038619358,
                                    29.727600126611982,
                                    18.763002814671754,
                                    20.92896587496206
                                ],
                                "data": 3
                            }
                        ]
                    }
                },
                "r": [
                    {
                        "vector": [
                            4.964605236921251,
                            35.28310700571133,
                            6.010603168865449,
                            26.178194884135742,
                            8.45426901990515
                        ],
                        "data": 2
                    }
                ]
            },
            "r": {
                "h": {
                    "w": [
                        -117.87179334395529,
                        18.53608313065002,
                        10.003956535949193,
                        10.140831188252477,
                        -30.26006048696462
                    ],
                    "b": -3212.282887487633
                },
                "l": [
                    {
                        "vector": [
                            28.90950503166185,
                            2.177313776858716,
                            1.0972104209883327,
                            39.614085991440334,
                            10.3897653704162
                        ],
                        "data": 5
                    }
                ],
                "r": {
                    "h": {
                        "w": [
                            77.91605813087693,
                            -3.497349692751797,
                            75.28777361623176,
                            27.917211132923185,
                            88.60675994430576
                        ],
                        "b": 5456.575061847579
                    },
                    "l": [
                        {
                            "vector": [
                                16.220287535556608,
                                2.127013954828474,
                                17.78209737718128,
                                11.948381367461192,
                                14.464160821226058
                            ],
                            "data": 6
                        }
                    ],
                    "r": [
                        {
                            "vector": [
                                22.37405430561256,
                                15.285310474475358,
                                19.20838154951558,
                                11.39879382795411,
                                36.662968857583884
                            ],
                            "data": 0
                        }
                    ]
                }
            }
        },
        {
            "h": {
                "w": [
                    -3.3687084020648967,
                    6.62558946520042,
                    -45.92136053685421,
                    2.086626050079346,
                    -77.39578280605792
                ],
                "b": -2476.2149014190295
            },
            "l": {
                "h": {
                    "w": [
                        21.203023083103986,
                        0.38726104107858816,
                        46.89995681275792,
                        -58.11189975327071,
                        -81.77319171396431
                    ],
                    "b": -1841.4702417022543
                },
                "l": {
                    "h": {
                        "w": [
                            -3.8871963504884164,
                            -20.222352495838088,
                            -9.095206334556693,
                            49.610782780667705,
                            85.86340015598986
                        ],
                        "b": 3851.1007278675775
                    },
                    "l": [
                        {
                            "vector": [
                                22.37405430561256,
                                15.285310474475358,
                                19.20838154951558,
                                11.39879382795411,
                                36.662968857583884
                            ],
                            "data": 0
                        }
                    ],
                    "r": [
                        {
                            "vector": [
                                2.1992641496311105,
                                7.355568363720764,
                                28.73639387847998,
                                32.70167011191434,
                                39.08273511586568
                            ],
                            "data": 7
                        }
                    ]
                },
                "r": [
                    {
                        "vector": [
                            0.07725510629605914,
                            5.796285038619358,
                            29.727600126611982,
                            18.763002814671754,
                            20.92896587496206
                        ],
                        "data": 3
                    }
                ]
            },
            "r": {
                "h": {
                    "w": [
                        42.92361136696307,
                        -93.3636508505103,
                        -35.76354679375012,
                        -4.523478180430075,
                        31.571219506688685
                    ],
                    "b": -2110.0812058742713
                },
                "l": {
                    "h": {
                        "w": [
                            -5.206422507946179,
                            -106.98381536721817,
                            -88.74741383528303,
                            22.20952993983667,
                            -18.47239220906955
                        ],
                        "b": -4226.590747670141
                    },
                    "l": [
                        {
                            "vector": [
                                4.340783072159482,
                                14.973491396683247,
                                38.683508401758324,
                                26.695594836335772,
                                4.316479096391781
                            ],
                            "data": 8
                        }
                    ],
                    "r": [
                        {
                            "vector": [
                                4.964605236921251,
                                35.28310700571133,
                                6.010603168865449,
                                26.178194884135742,
                                8.45426901990515
                            ],
                            "data": 2
                        }
                    ]
                },
                "r": {
                    "h": {
                        "w": [
                            52.15381048809558,
                            1.8460080555099694,
                            -38.55424504217546,
                            -34.76224830851125,
                            -12.043118631793128
                        ],
                        "b": -265.5278356116501
                    },
                    "l": {
                        "h": {
                            "w": [
                                -14.643800489720256,
                                -28.108887275043195,
                                6.562554884190128,
                                -10.882869493150821,
                                -23.311106940616625
                            ],
                            "b": -821.7453121650126
                        },
                        "l": [
                            {
                                "vector": [
                                    2.6763054128913044,
                                    11.887797578702504,
                                    2.8502908169981733,
                                    16.18075001342512,
                                    19.944648930543913
                                ],
                                "data": 4
                            }
                        ],
                        "r": [
                            {
                                "vector": [
                                    16.220287535556608,
                                    2.127013954828474,
                                    17.78209737718128,
                                    11.948381367461192,
                                    14.464160821226058
                                ],
                                "data": 6
                            }
                        ]
                    },
                    "r": {
                        "h": {
                            "w": [
                                -58.88679038702115,
                                11.270898647635342,
                                22.44544446548499,
                                -7.752479673878241,
                                18.594639671070077
                            ],
                            "b": -1161.2596685757285
                        },
                        "l": {
                            "h": {
                                "w": [
                                    61.5247874586139,
                                    9.120050632918204,
                                    -4.826191408501707,
                                    -64.6907021740939,
                                    -32.483150755991154
                                ],
                                "b": -708.3713657952402
                            },
                            "l": [
                                {
                                    "vector": [
                                        28.90950503166185,
                                        2.177313776858716,
                                        1.0972104209883327,
                                        39.614085991440334,
                                        10.3897653704162
                                    ],
                                    "data": 5
                                }
                            ],
                            "r": [
                                {
                                    "vector": [
                                        23.37916442849589,
                                        3.3043413450561765,
                                        2.5678041748273284,
                                        23.743441454098946,
                                        7.0794137349721264
                                    ],
                                    "data": 9
                                }
                            ]
                        },
                        "r": [
                            {
                                "vector": [
                                    20.936842703517378,
                                    16.261077062838034,
                                    17.937381847307154,
                                    3.7971163275876307,
                                    6.51077395616908
                                ],
                                "data": 1
                            }
                        ]
                    }
                }
            }
        },
        {
            "h": {
                "w": [
                    55.746260358568236,
                    -58.99649552016062,
                    92.82797790944686,
                    -36.160095686786015,
                    63.73489517294577
                ],
                "b": 3101.824370613803
            },
            "l": {
                "h": {
                    "w": [
                        -44.68308620934813,
                        -37.06845816911333,
                        -17.241068888829645,
                        50.71750996305259,
                        -28.182499968372646
                    ],
                    "b": -1191.1940499309392
                },
                "l": [
                    {
                        "vector": [
                            20.936842703517378,
                            16.261077062838034,
                            17.937381847307154,
                            3.7971163275876307,
                            6.51077395616908
                        ],
                        "data": 1
                    }
                ],
                "r": {
                    "h": {
                        "w": [
                            -3.1579947267882638,
                            -75.48069081130983,
                            -25.642386799454165,
                            -104.0903585381951,
                            -66.1818612711147
                        ],
                        "b": -5327.809223762704
                    },
                    "l": [
                        {
                            "vector": [
                                4.964605236921251,
                                35.28310700571133,
                                6.010603168865449,
                                26.178194884135742,
                                8.45426901990515
                            ],
                            "data": 2
                        }
                    ],
                    "r": {
                        "h": {
                            "w": [
                                -0.6540027698770796,
                                18.769797080086917,
                                -57.08149159569486,
                                -10.107108673974707,
                                -80.19147223318708
                            ],
                            "b": -2580.1822280454494
                        },
                        "l": [
                            {
                                "vector": [
                                    0.07725510629605914,
                                    5.796285038619358,
                                    29.727600126611982,
                                    18.763002814671754,
                                    20.92896587496206
                                ],
                                "data": 3
                            }
                        ],
                        "r": {
                            "h": {
                                "w": [
                                    -25.31499200804975,
                                    2.597901484326563,
                                    -4.742178941612457,
                                    72.46999862024524,
                                    -63.06449173577262
                                ],
                                "b": 674.3263728752158
                            },
                            "l": {
                                "h": {
                                    "w": [
                                        16.456076120353217,
                                        -19.221859225968146,
                                        -0.8647375696615853,
                                        22.997468222751735,
                                        35.335125915506254
                                    ],
                                    "b": 943.2349333113327
                                },
                                "l": [
                                    {
                                        "vector": [
                                            2.6763054128913044,
                                            11.887797578702504,
                                            2.8502908169981733,
                                            16.18075001342512,
                                            19.944648930543913
                                        ],
                                        "data": 4
                                    }
                                ],
                                "r": [
                                    {
                                        "vector": [
                                            16.220287535556608,
                                            2.127013954828474,
                                            17.78209737718128,
                                            11.948381367461192,
                                            14.464160821226058
                                        ],
                                        "data": 6
                                    }
                                ]
                            },
                            "r": {
                                "h": {
                                    "w": [
                                        -54.902462481402694,
                                        11.287004299536271,
                                        60.87908737749615,
                                        51.30481111623439,
                                        -9.798638277018995
                                    ],
                                    "b": 2023.888426935587
                                },
                                "l": {
                                    "h": {
                                        "w": [
                                            -68.40415125317809,
                                            -1.0875975774130104,
                                            -1.8769885245781337,
                                            -80.15493800561678,
                                            -3.341861074146344
                                        ],
                                        "b": -4363.2006669927905
                                    },
                                    "l": [
                                        {
                                            "vector": [
                                                28.90950503166185,
                                                2.177313776858716,
                                                1.0972104209883327,
                                                39.614085991440334,
                                                10.3897653704162
                                            ],
                                            "data": 5
                                        }
                                    ],
                                    "r": [
                                        {
                                            "vector": [
                                                23.37916442849589,
                                                3.3043413450561765,
                                                2.5678041748273284,
                                                23.743441454098946,
                                                7.0794137349721264
                                            ],
                                            "data": 9
                                        }
                                    ]
                                },
                                "r": [
                                    {
                                        "vector": [
                                            4.340783072159482,
                                            14.973491396683247,
                                            38.683508401758324,
                                            26.695594836335772,
                                            4.316479096391781
                                        ],
                                        "data": 8
                                    }
                                ]
                            }
                        }
                    }
                }
            },
            "r": {
                "h": {
                    "w": [
                        49.42900171304221,
                        4.397085706154101,
                        -68.77429455807602,
                        107.5524434591793,
                        52.99640707850344
                    ],
                    "b": 3387.091596784412
                },
                "l": [
                    {
                        "vector": [
                            22.37405430561256,
                            15.285310474475358,
                            19.20838154951558,
                            11.39879382795411,
                            36.662968857583884
                        ],
                        "data": 0
                    }
                ],
                "r": [
                    {
                        "vector": [
                            2.1992641496311105,
                            7.355568363720764,
                            28.73639387847998,
                            32.70167011191434,
                            39.08273511586568
                        ],
                        "data": 7
                    }
                ]
            }
        },
        {
            "h": {
                "w": [
                    4.881762159704721,
                    37.192331660391545,
                    8.390417295592513,
                    -17.73193740319979,
                    0.0219587490236961
                ],
                "b": 713.9403877399383
            },
            "l": {
                "h": {
                    "w": [
                        -33.92949354278103,
                        10.38091978869872,
                        -50.37920620085066,
                        72.30771020145396,
                        -7.762710365036639
                    ],
                    "b": -637.2050875412278
                },
                "l": {
                    "h": {
                        "w": [
                            -33.43971676116877,
                            -6.001497214376542,
                            -22.868244769497437,
                            45.82454072165534,
                            15.230064318653177
                        ],
                        "b": -196.22407431651135
                    },
                    "l": [
                        {
                            "vector": [
                                22.37405430561256,
                                15.285310474475358,
                                19.20838154951558,
                                11.39879382795411,
                                36.662968857583884
                            ],
                            "data": 0
                        }
                    ],
                    "r": [
                        {
                            "vector": [
                                16.220287535556608,
                                2.127013954828474,
                                17.78209737718128,
                                11.948381367461192,
                                14.464160821226058
                            ],
                            "data": 6
                        }
                    ]
                },
                "r": {
                    "h": {
                        "w": [
                            -5.519969787555387,
                            13.673272015974185,
                            -39.071179174134514,
                            65.95288645769904,
                            -81.10832308130503
                        ],
                        "b": -1028.402952768071
                    },
                    "l": {
                        "h": {
                            "w": [
                                -1.9512090062823741,
                                12.567219491716763,
                                -69.99860126676829,
                                30.527186553900293,
                                23.602687100786397
                            ],
                            "b": -472.02423451619904
                        },
                        "l": [
                            {
                                "vector": [
                                    0.07725510629605914,
                                    5.796285038619358,
                                    29.727600126611982,
                                    18.763002814671754,
                                    20.92896587496206
                                ],
                                "data": 3
                            }
                        ],
                        "r": [
                            {
                                "vector": [
                                    2.1992641496311105,
                                    7.355568363720764,
                                    28.73639387847998,
                                    32.70167011191434,
                                    39.08273511586568
                                ],
                                "data": 7
                            }
                        ]
                    },
                    "r": {
                        "h": {
                            "w": [
                                39.37642590865657,
                                -7.130215168646902,
                                2.427415601327981,
                                -136.33562252124122,
                                -56.34735682322824
                            ],
                            "b": -4081.528243171847
                        },
                        "l": [
                            {
                                "vector": [
                                    28.90950503166185,
                                    2.177313776858716,
                                    1.0972104209883327,
                                    39.614085991440334,
                                    10.3897653704162
                                ],
                                "data": 5
                            }
                        ],
                        "r": {
                            "h": {
                                "w": [
                                    6.148746852225031,
                                    -16.09664588563919,
                                    -65.0764912938277,
                                    -95.17822233628063,
                                    8.338141529080687
                                ],
                                "b": -3485.352921563605
                            },
                            "l": [
                                {
                                    "vector": [
                                        4.340783072159482,
                                        14.973491396683247,
                                        38.683508401758324,
                                        26.695594836335772,
                                        4.316479096391781
                                    ],
                                    "data": 8
                                }
                            ],
                            "r": {
                                "h": {
                                    "w": [
                                        -0.284470927634473,
                                        17.178522894329575,
                                        -12.091852956993872,
                                        77.455369083423,
                                        -31.64953189006573
                                    ],
                                    "b": 1212.5478635173265
                                },
                                "l": [
                                    {
                                        "vector": [
                                            2.6763054128913044,
                                            11.887797578702504,
                                            2.8502908169981733,
                                            16.18075001342512,
                                            19.944648930543913
                                        ],
                                        "data": 4
                                    }
                                ],
                                "r": [
                                    {
                                        "vector": [
                                            23.37916442849589,
                                            3.3043413450561765,
                                            2.5678041748273284,
                                            23.743441454098946,
                                            7.0794137349721264
                                        ],
                                        "data": 9
                                    }
                                ]
                            }
                        }
                    }
                }
            },
            "r": {
                "h": {
                    "w": [
                        -30.658611232998197,
                        19.68399799077065,
                        -51.296192395804894,
                        56.44057389079933,
                        -0.15289040948302812
                    ],
                    "b": 340.79425088929065
                },
                "l": [
                    {
                        "vector": [
                            20.936842703517378,
                            16.261077062838034,
                            17.937381847307154,
                            3.7971163275876307,
                            6.51077395616908
                        ],
                        "data": 1
                    }
                ],
                "r": [
                    {
                        "vector": [
                            4.964605236921251,
                            35.28310700571133,
                            6.010603168865449,
                            26.178194884135742,
                            8.45426901990515
                        ],
                        "data": 2
                    }
                ]
            }
        },
        {
            "h": {
                "w": [
                    74.39987181221434,
                    -78.69633357565127,
                    -39.581025291679474,
                    0.9758225657867214,
                    91.82940089685106
                ],
                "b": 1624.4600987094145
            },
            "l": {
                "h": {
                    "w": [
                        -42.22522870999103,
                        -104.31085612203228,
                        44.175004899077265,
                        45.96980116240648,
                        2.6941511655109665
                    ],
                    "b": -1997.0664959672024
                },
                "l": [
                    {
                        "vector": [
                            4.964605236921251,
                            35.28310700571133,
                            6.010603168865449,
                            26.178194884135742,
                            8.45426901990515
                        ],
                        "data": 2
                    }
                ],
                "r": {
                    "h": {
                        "w": [
                            31.625260901696443,
                            10.915305865022916,
                            -75.65490479738908,
                            19.66608868328673,
                            -24.14263975859162
                        ],
                        "b": -1459.7744718496594
                    },
                    "l": {
                        "h": {
                            "w": [
                                -9.68495807401174,
                                49.64599770554913,
                                60.17605951908274,
                                -25.548768454303783,
                                17.912800964497052
                            ],
                            "b": 2197.932071341396
                        },
                        "l": [
                            {
                                "vector": [
                                    0.07725510629605914,
                                    5.796285038619358,
                                    29.727600126611982,
                                    18.763002814671754,
                                    20.92896587496206
                                ],
                                "data": 3
                            }
                        ],
                        "r": [
                            {
                                "vector": [
                                    4.340783072159482,
                                    14.973491396683247,
                                    38.683508401758324,
                                    26.695594836335772,
                                    4.316479096391781
                                ],
                                "data": 8
                            }
                        ]
                    },
                    "r": {
                        "h": {
                            "w": [
                                4.036966853396898,
                                -61.486660253361315,
                                -38.18244332242867,
                                8.28507714767678,
                                -34.78959956690018
                            ],
                            "b": -1592.0171666895453
                        },
                        "l": [
                            {
                                "vector": [
                                    20.936842703517378,
                                    16.261077062838034,
                                    17.937381847307154,
                                    3.7971163275876307,
                                    6.51077395616908
                                ],
                                "data": 1
                            }
                        ],
                        "r": [
                            {
                                "vector": [
                                    2.6763054128913044,
                                    11.887797578702504,
                                    2.8502908169981733,
                                    16.18075001342512,
                                    19.944648930543913
                                ],
                                "data": 4
                            }
                        ]
                    }
                }
            },
            "r": {
                "h": {
                    "w": [
                        -10.18980873618743,
                        -13.380326932984204,
                        38.37207378633411,
                        -116.99107119117359,
                        1.4121646277352653
                    ],
                    "b": -2939.3314284418157
                },
                "l": {
                    "h": {
                        "w": [
                            -52.30165828508632,
                            -1.4064328234041135,
                            5.629199321600666,
                            118.26056452139849,
                            -13.652478895072186
                        ],
                        "b": 2266.168379519152
                    },
                    "l": [
                        {
                            "vector": [
                                23.37916442849589,
                                3.3043413450561765,
                                2.5678041748273284,
                                23.743441454098946,
                                7.0794137349721264
                            ],
                            "data": 9
                        }
                    ],
                    "r": [
                        {
                            "vector": [
                                28.90950503166185,
                                2.177313776858716,
                                1.0972104209883327,
                                39.614085991440334,
                                10.3897653704162
                            ],
                            "data": 5
                        }
                    ]
                },
                "r": {
                    "h": {
                        "w": [
                            -20.789142744023096,
                            -15.608785647472828,
                            -66.58431801979539,
                            14.322444533313814,
                            -56.61276254454309
                        ],
                        "b": -3048.5868820966516
                    },
                    "l": {
                        "h": {
                            "w": [
                                47.22431899717432,
                                -38.584379983217744,
                                22.993915420544596,
                                -84.75100858036893,
                                32.3962361330091
                            ],
                            "b": 52.81449128489817
                        },
                        "l": [
                            {
                                "vector": [
                                    2.1992641496311105,
                                    7.355568363720764,
                                    28.73639387847998,
                                    32.70167011191434,
                                    39.08273511586568
                                ],
                                "data": 7
                            }
                        ],
                        "r": [
                            {
                                "vector": [
                                    22.37405430561256,
                                    15.285310474475358,
                                    19.20838154951558,
                                    11.39879382795411,
                                    36.662968857583884
                                ],
                                "data": 0
                            }
                        ]
                    },
                    "r": [
                        {
                            "vector": [
                                16.220287535556608,
                                2.127013954828474,
                                17.78209737718128,
                                11.948381367461192,
                                14.464160821226058
                            ],
                            "data": 6
                        }
                    ]
                }
            }
        },
        {
            "h": {
                "w": [
                    -31.426455277202223,
                    -57.435944276404115,
                    -14.113479613724081,
                    37.86297712623657,
                    -23.482411171103635
                ],
                "b": -2067.8608404707975
            },
            "l": [
                {
                    "vector": [
                        22.37405430561256,
                        15.285310474475358,
                        19.20838154951558,
                        11.39879382795411,
                        36.662968857583884
                    ],
                    "data": 0
                }
            ],
            "r": {
                "h": {
                    "w": [
                        11.405631654102066,
                        61.549272578594156,
                        20.46020439192452,
                        31.58836916549714,
                        -36.903755032653265
                    ],
                    "b": 2176.257497081484
                },
                "l": {
                    "h": {
                        "w": [
                            -22.356853052848507,
                            49.8575948728013,
                            21.61593949589748,
                            47.26215614174613,
                            -31.571270055854235
                        ],
                        "b": 930.0868651365383
                    },
                    "l": {
                        "h": {
                            "w": [
                                -36.89563516539931,
                                43.62033630704008,
                                49.588128622474656,
                                -42.5379210698477,
                                -51.79000700121871
                            ],
                            "b": -416.2401858612012
                        },
                        "l": {
                            "h": {
                                "w": [
                                    -0.18537965590350325,
                                    -26.40028032926311,
                                    21.09192522844686,
                                    60.451760164358646,
                                    -32.79935221463652
                                ],
                                "b": 316.773812732367
                            },
                            "l": [
                                {
                                    "vector": [
                                        2.6763054128913044,
                                        11.887797578702504,
                                        2.8502908169981733,
                                        16.18075001342512,
                                        19.944648930543913
                                    ],
                                    "data": 4
                                }
                            ],
                            "r": {
                                "h": {
                                    "w": [
                                        -46.719463863096756,
                                        -6.6801513733192674,
                                        -27.150142635190747,
                                        -10.183919078772064,
                                        -19.438827603507974
                                    ],
                                    "b": -1610.5573187487576
                                },
                                "l": [
                                    {
                                        "vector": [
                                            16.220287535556608,
                                            2.127013954828474,
                                            17.78209737718128,
                                            11.948381367461192,
                                            14.464160821226058
                                        ],
                                        "data": 6
                                    }
                                ],
                                "r": [
                                    {
                                        "vector": [
                                            23.37916442849589,
                                            3.3043413450561765,
                                            2.5678041748273284,
                                            23.743441454098946,
                                            7.0794137349721264
                                        ],
                                        "data": 9
                                    }
                                ]
                            }
                        },
                        "r": [
                            {
                                "vector": [
                                    20.936842703517378,
                                    16.261077062838034,
                                    17.937381847307154,
                                    3.7971163275876307,
                                    6.51077395616908
                                ],
                                "data": 1
                            }
                        ]
                    },
                    "r": {
                        "h": {
                            "w": [
                                30.549659113482647,
                                1.9646579057122189,
                                14.576834006370063,
                                55.888658588040784,
                                71.5419828964013
                            ],
                            "b": 3426.8752511706293
                        },
                        "l": [
                            {
                                "vector": [
                                    0.07725510629605914,
                                    5.796285038619358,
                                    29.727600126611982,
                                    18.763002814671754,
                                    20.92896587496206
                                ],
                                "data": 3
                            }
                        ],
                        "r": {
                            "h": {
                                "w": [
                                    10.94058448979726,
                                    -12.931969489329205,
                                    37.56111090943894,
                                    65.0715895917254,
                                    82.50432829331545
                                ],
                                "b": 5062.524560159525
                            },
                            "l": [
                                {
                                    "vector": [
                                        28.90950503166185,
                                        2.177313776858716,
                                        1.0972104209883327,
                                        39.614085991440334,
                                        10.3897653704162
                                    ],
                                    "data": 5
                                }
                            ],
                            "r": [
                                {
                                    "vector": [
                                        2.1992641496311105,
                                        7.355568363720764,
                                        28.73639387847998,
                                        32.70167011191434,
                                        39.08273511586568
                                    ],
                                    "data": 7
                                }
                            ]
                        }
                    }
                },
                "r": {
                    "h": {
                        "w": [
                            1.1720115332006387,
                            -74.11175037031111,
                            90.29331276323782,
                            87.92337664027204,
                            -29.862558554307412
                        ],
                        "b": 2294.6779282338107
                    },
                    "l": [
                        {
                            "vector": [
                                4.964605236921251,
                                35.28310700571133,
                                6.010603168865449,
                                26.178194884135742,
                                8.45426901990515
                            ],
                            "data": 2
                        }
                    ],
                    "r": [
                        {
                            "vector": [
                                4.340783072159482,
                                14.973491396683247,
                                38.683508401758324,
                                26.695594836335772,
                                4.316479096391781
                            ],
                            "data": 8
                        }
                    ]
                }
            }
        },
        {
            "h": {
                "w": [
                    -18.07802606199502,
                    -66.66032908034575,
                    -55.68411261570114,
                    -1.802396802618027,
                    36.50662315147464
                ],
                "b": -1702.7792362772907
            },
            "l": {
                "h": {
                    "w": [
                        0.7640770236627503,
                        -32.41820437694824,
                        24.175197883647243,
                        38.18893702681834,
                        -8.357980215395187
                    ],
                    "b": -26.292088269288122
                },
                "l": [
                    {
                        "vector": [
                            4.964605236921251,
                            35.28310700571133,
                            6.010603168865449,
                            26.178194884135742,
                            8.45426901990515
                        ],
                        "data": 2
                    }
                ],
                "r": {
                    "h": {
                        "w": [
                            4.353164390965873,
                            25.457604841171232,
                            94.60521093397509,
                            -74.09696122083115,
                            13.384953343362465
                        ],
                        "b": 2073.6656336191013
                    },
                    "l": [
                        {
                            "vector": [
                                20.936842703517378,
                                16.261077062838034,
                                17.937381847307154,
                                3.7971163275876307,
                                6.51077395616908
                            ],
                            "data": 1
                        }
                    ],
                    "r": [
                        {
                            "vector": [
                                4.340783072159482,
                                14.973491396683247,
                                38.683508401758324,
                                26.695594836335772,
                                4.316479096391781
                            ],
                            "data": 8
                        }
                    ]
                }
            },
            "r": {
                "h": {
                    "w": [
                        -20.389014418878922,
                        24.477610584359553,
                        100.32826330795896,
                        -58.54757211492873,
                        79.11424787844541
                    ],
                    "b": 3879.1858525801567
                },
                "l": {
                    "h": {
                        "w": [
                            -5.6048867761447285,
                            -42.90248546849298,
                            -43.21974024702891,
                            68.41114035949107,
                            -51.70836961011403
                        ],
                        "b": -952.5492395438439
                    },
                    "l": [
                        {
                            "vector": [
                                0.07725510629605914,
                                5.796285038619358,
                                29.727600126611982,
                                18.763002814671754,
                                20.92896587496206
                            ],
                            "data": 3
                        }
                    ],
                    "r": {
                        "h": {
                            "w": [
                                -34.20146776759988,
                                -10.480448127100608,
                                -8.15994722262317,
                                3.7511724823962425,
                                -42.94526013545604
                            ],
                            "b": -1176.6622046450673
                        },
                        "l": {
                            "h": {
                                "w": [
                                    -71.45107463167551,
                                    -4.425226092087892,
                                    12.555762756109452,
                                    96.09271276212883,
                                    50.78460573760329
                                ],
                                "b": 1605.1992586967385
                            },
                            "l": [
                                {
                                    "vector": [
                                        16.220287535556608,
                                        2.127013954828474,
                                        17.78209737718128,
                                        11.948381367461192,
                                        14.464160821226058
                                    ],
                                    "data": 6
                                }
                            ],
                            "r": [
                                {
                                    "vector": [
                                        28.90950503166185,
                                        2.177313776858716,
                                        1.0972104209883327,
                                        39.614085991440334,
                                        10.3897653704162
                                    ],
                                    "data": 5
                                }
                            ]
                        },
                        "r": {
                            "h": {
                                "w": [
                                    4.581605964319792,
                                    28.93883567382688,
                                    -0.3622585312540618,
                                    -54.47953916301332,
                                    -50.10067522293049
                                ],
                                "b": -1485.959691336319
                            },
                            "l": [
                                {
                                    "vector": [
                                        2.6763054128913044,
                                        11.887797578702504,
                                        2.8502908169981733,
                                        16.18075001342512,
                                        19.944648930543913
                                    ],
                                    "data": 4
                                }
                            ],
                            "r": [
                                {
                                    "vector": [
                                        23.37916442849589,
                                        3.3043413450561765,
                                        2.5678041748273284,
                                        23.743441454098946,
                                        7.0794137349721264
                                    ],
                                    "data": 9
                                }
                            ]
                        }
                    }
                },
                "r": {
                    "h": {
                        "w": [
                            -44.333859034469555,
                            54.496282792601036,
                            16.1305669437954,
                            -81.96839072286237,
                            -27.28833492670654
                        ],
                        "b": -2382.014044743664
                    },
                    "l": [
                        {
                            "vector": [
                                2.1992641496311105,
                                7.355568363720764,
                                28.73639387847998,
                                32.70167011191434,
                                39.08273511586568
                            ],
                            "data": 7
                        }
                    ],
                    "r": [
                        {
                            "vector": [
                                22.37405430561256,
                                15.285310474475358,
                                19.20838154951558,
                                11.39879382795411,
                                36.662968857583884
                            ],
                            "data": 0
                        }
                    ]
                }
            }
        },
        {
            "h": {
                "w": [
                    75.05156727283583,
                    38.87787234559406,
                    -8.43844527094653,
                    -6.6691349323892055,
                    39.30612058897701
                ],
                "b": 2879.601701381677
            },
            "l": {
                "h": {
                    "w": [
                        -19.522528777714058,
                        72.84648456535419,
                        19.28355682476287,
                        -38.44252684283061,
                        7.349582165847714
                    ],
                    "b": 1334.306641684419
                },
                "l": {
                    "h": {
                        "w": [
                            -17.407269178580655,
                            -14.879455015104142,
                            20.84363988553774,
                            23.522389816296894,
                            -31.342962712286422
                        ],
                        "b": -14.931345220790774
                    },
                    "l": {
                        "h": {
                            "w": [
                                44.23730028518113,
                                -44.87540897233873,
                                -21.209772989390935,
                                -13.686320720383215,
                                -41.19265949676728
                            ],
                            "b": -1011.3524344006407
                        },
                        "l": [
                            {
                                "vector": [
                                    2.6763054128913044,
                                    11.887797578702504,
                                    2.8502908169981733,
                                    16.18075001342512,
                                    19.944648930543913
                                ],
                                "data": 4
                            }
                        ],
                        "r": {
                            "h": {
                                "w": [
                                    84.13209602558116,
                                    -18.942882132685014,
                                    -88.7717010415793,
                                    20.91028605143252,
                                    -52.190512206657004
                                ],
                                "b": -579.2724256344833
                            },
                            "l": [
                                {
                                    "vector": [
                                        16.220287535556608,
                                        2.127013954828474,
                                        17.78209737718128,
                                        11.948381367461192,
                                        14.464160821226058
                                    ],
                                    "data": 6
                                }
                            ],
                            "r": {
                                "h": {
                                    "w": [
                                        -100.94579164978335,
                                        23.48774561407209,
                                        50.020793478849264,
                                        -10.010025082175375,
                                        -4.763627488742454
                                    ],
                                    "b": -1664.3507214384592
                                },
                                "l": [
                                    {
                                        "vector": [
                                            23.37916442849589,
                                            3.3043413450561765,
                                            2.5678041748273284,
                                            23.743441454098946,
                                            7.0794137349721264
                                        ],
                                        "data": 9
                                    }
                                ],
                                "r": [
                                    {
                                        "vector": [
                                            20.936842703517378,
                                            16.261077062838034,
                                            17.937381847307154,
                                            3.7971163275876307,
                                            6.51077395616908
                                        ],
                                        "data": 1
                                    }
                                ]
                            }
                        }
                    },
                    "r": {
                        "h": {
                            "w": [
                                -30.598061847629786,
                                -8.00614465904889,
                                -39.200209379029964,
                                -49.55237815527876,
                                5.734740857856352
                            ],
                            "b": -2436.117132502056
                        },
                        "l": {
                            "h": {
                                "w": [
                                    38.12272223331405,
                                    1.009607874772179,
                                    5.607046714854732,
                                    49.17747244159901,
                                    75.96108435046999
                                ],
                                "b": 4338.572368854985
                            },
                            "l": {
                                "h": {
                                    "w": [
                                        -40.73057153580903,
                                        13.368036333685971,
                                        45.61662143104883,
                                        -36.79282260547055,
                                        -18.395911024350653
                                    ],
                                    "b": -1010.311874565165
                                },
                                "l": [
                                    {
                                        "vector": [
                                            28.90950503166185,
                                            2.177313776858716,
                                            1.0972104209883327,
                                            39.614085991440334,
                                            10.3897653704162
                                        ],
                                        "data": 5
                                    }
                                ],
                                "r": [
                                    {
                                        "vector": [
                                            4.340783072159482,
                                            14.973491396683247,
                                            38.683508401758324,
                                            26.695594836335772,
                                            4.316479096391781
                                        ],
                                        "data": 8
                                    }
                                ]
                            },
                            "r": [
                                {
                                    "vector": [
                                        2.1992641496311105,
                                        7.355568363720764,
                                        28.73639387847998,
                                        32.70167011191434,
                                        39.08273511586568
                                    ],
                                    "data": 7
                                }
                            ]
                        },
                        "r": [
                            {
                                "vector": [
                                    0.07725510629605914,
                                    5.796285038619358,
                                    29.727600126611982,
                                    18.763002814671754,
                                    20.92896587496206
                                ],
                                "data": 3
                            }
                        ]
                    }
                },
                "r": [
                    {
                        "vector": [
                            4.964605236921251,
                            35.28310700571133,
                            6.010603168865449,
                            26.178194884135742,
                            8.45426901990515
                        ],
                        "data": 2
                    }
                ]
            },
            "r": [
                {
                    "vector": [
                        22.37405430561256,
                        15.285310474475358,
                        19.20838154951558,
                        11.39879382795411,
                        36.662968857583884
                    ],
                    "data": 0
                }
            ]
        },
        {
            "h": {
                "w": [
                    -6.387699125499424,
                    -75.80827921047504,
                    -59.491343205533624,
                    29.878285439266534,
                    -29.706596189602152
                ],
                "b": -2853.25144747871
            },
            "l": [
                {
                    "vector": [
                        22.37405430561256,
                        15.285310474475358,
                        19.20838154951558,
                        11.39879382795411,
                        36.662968857583884
                    ],
                    "data": 0
                }
            ],
            "r": {
                "h": {
                    "w": [
                        -35.04906496767631,
                        41.687376800018455,
                        -40.72352979225464,
                        64.67123519591627,
                        25.753717250281134
                    ],
                    "b": 1294.8098485557516
                },
                "l": {
                    "h": {
                        "w": [
                            19.57802866063725,
                            -30.62919668353401,
                            14.800333161604854,
                            16.806690038539003,
                            8.287009600516342
                        ],
                        "b": 523.9136287505528
                    },
                    "l": [
                        {
                            "vector": [
                                20.936842703517378,
                                16.261077062838034,
                                17.937381847307154,
                                3.7971163275876307,
                                6.51077395616908
                            ],
                            "data": 1
                        }
                    ],
                    "r": {
                        "h": {
                            "w": [
                                -8.543516627816018,
                                -13.929034187961243,
                                62.996405354828696,
                                -1.4557999442973255,
                                86.66905599391436
                            ],
                            "b": 2883.0585905849302
                        },
                        "l": {
                            "h": {
                                "w": [
                                    -47.73273392569462,
                                    -6.225432422706021,
                                    -109.6292539428699,
                                    56.57322199007234,
                                    42.020977302631366
                                ],
                                "b": -2151.390649959626
                            },
                            "l": [
                                {
                                    "vector": [
                                        4.340783072159482,
                                        14.973491396683247,
                                        38.683508401758324,
                                        26.695594836335772,
                                        4.316479096391781
                                    ],
                                    "data": 8
                                }
                            ],
                            "r": {
                                "h": {
                                    "w": [
                                        24.470034834333816,
                                        -12.632617924942378,
                                        28.294093158568003,
                                        87.30150010279846,
                                        16.749539465207263
                                    ],
                                    "b": 2476.482184459616
                                },
                                "l": [
                                    {
                                        "vector": [
                                            16.220287535556608,
                                            2.127013954828474,
                                            17.78209737718128,
                                            11.948381367461192,
                                            14.464160821226058
                                        ],
                                        "data": 6
                                    }
                                ],
                                "r": [
                                    {
                                        "vector": [
                                            23.37916442849589,
                                            3.3043413450561765,
                                            2.5678041748273284,
                                            23.743441454098946,
                                            7.0794137349721264
                                        ],
                                        "data": 9
                                    }
                                ]
                            }
                        },
                        "r": [
                            {
                                "vector": [
                                    0.07725510629605914,
                                    5.796285038619358,
                                    29.727600126611982,
                                    18.763002814671754,
                                    20.92896587496206
                                ],
                                "data": 3
                            }
                        ]
                    }
                },
                "r": {
                    "h": {
                        "w": [
                            -0.10538652956566352,
                            93.31269926288638,
                            1.4059157147226031,
                            -74.47833980643763,
                            -35.454367405949455
                        ],
                        "b": 125.80364580974447
                    },
                    "l": {
                        "h": {
                            "w": [
                                -4.389702693304855,
                                10.472023469700908,
                                6.534234037035965,
                                -109.72097937330496,
                                -34.118706461136156
                            ],
                            "b": -3561.2016358202545
                        },
                        "l": {
                            "h": {
                                "w": [
                                    -61.657700670124825,
                                    -3.366257166446257,
                                    -0.10829307499608376,
                                    12.649495439248625,
                                    90.07890006277499
                                ],
                                "b": 1708.8850851039942
                            },
                            "l": [
                                {
                                    "vector": [
                                        28.90950503166185,
                                        2.177313776858716,
                                        1.0972104209883327,
                                        39.614085991440334,
                                        10.3897653704162
                                    ],
                                    "data": 5
                                }
                            ],
                            "r": [
                                {
                                    "vector": [
                                        2.1992641496311105,
                                        7.355568363720764,
                                        28.73639387847998,
                                        32.70167011191434,
                                        39.08273511586568
                                    ],
                                    "data": 7
                                }
                            ]
                        },
                        "r": [
                            {
                                "vector": [
                                    2.6763054128913044,
                                    11.887797578702504,
                                    2.8502908169981733,
                                    16.18075001342512,
                                    19.944648930543913
                                ],
                                "data": 4
                            }
                        ]
                    },
                    "r": [
                        {
                            "vector": [
                                4.964605236921251,
                                35.28310700571133,
                                6.010603168865449,
                                26.178194884135742,
                                8.45426901990515
                            ],
                            "data": 2
                        }
                    ]
                }
            }
        },
        {
            "h": {
                "w": [
                    -98.65107555594594,
                    66.31330622953207,
                    67.45377955464879,
                    -12.997481562645579,
                    -83.46579608533474
                ],
                "b": -1738.0692782476774
            },
            "l": {
                "h": {
                    "w": [
                        98.32663432547602,
                        38.93589299678423,
                        39.40127272779668,
                        -67.94552731692337,
                        42.423493136459015
                    ],
                    "b": 2526.2865752884027
                },
                "l": {
                    "h": {
                        "w": [
                            -23.96520427740876,
                            -0.2866793165839283,
                            4.620193823370633,
                            -108.45052810007087,
                            36.331978319220894
                        ],
                        "b": -3737.107259212223
                    },
                    "l": [
                        {
                            "vector": [
                                28.90950503166185,
                                2.177313776858716,
                                1.0972104209883327,
                                39.614085991440334,
                                10.3897653704162
                            ],
                            "data": 5
                        }
                    ],
                    "r": [
                        {
                            "vector": [
                                23.37916442849589,
                                3.3043413450561765,
                                2.5678041748273284,
                                23.743441454098946,
                                7.0794137349721264
                            ],
                            "data": 9
                        }
                    ]
                },
                "r": [
                    {
                        "vector": [
                            22.37405430561256,
                            15.285310474475358,
                            19.20838154951558,
                            11.39879382795411,
                            36.662968857583884
                        ],
                        "data": 0
                    }
                ]
            },
            "r": {
                "h": {
                    "w": [
                        -14.670605410286626,
                        77.31410700607208,
                        -41.042059467496756,
                        69.07575773702072,
                        13.319389671532932
                    ],
                    "b": 2446.060294684571
                },
                "l": {
                    "h": {
                        "w": [
                            17.223039445390377,
                            0.39030628114790034,
                            -103.44175853587596,
                            29.370959567428343,
                            14.426576553526061
                        ],
                        "b": -1750.7699695276228
                    },
                    "l": {
                        "h": {
                            "w": [
                                -9.871188206749705,
                                42.52590249148226,
                                -2.6929173615447723,
                                97.77982646499687,
                                57.853418443490725
                            ],
                            "b": 3280.442910296167
                        },
                        "l": [
                            {
                                "vector": [
                                    0.07725510629605914,
                                    5.796285038619358,
                                    29.727600126611982,
                                    18.763002814671754,
                                    20.92896587496206
                                ],
                                "data": 3
                            }
                        ],
                        "r": [
                            {
                                "vector": [
                                    4.340783072159482,
                                    14.973491396683247,
                                    38.683508401758324,
                                    26.695594836335772,
                                    4.316479096391781
                                ],
                                "data": 8
                            }
                        ]
                    },
                    "r": {
                        "h": {
                            "w": [
                                -58.95062472367525,
                                39.60886943442219,
                                -26.881570880769942,
                                -11.865325917600074,
                                36.56447488124253
                            ],
                            "b": -52.79263929227005
                        },
                        "l": {
                            "h": {
                                "w": [
                                    -39.40211996251818,
                                    -13.809963115952584,
                                    -22.121213444598837,
                                    -19.060192619119718,
                                    40.229683902518026
                                ],
                                "b": -982.2320044527391
                            },
                            "l": [
                                {
                                    "vector": [
                                        20.936842703517378,
                                        16.261077062838034,
                                        17.937381847307154,
                                        3.7971163275876307,
                                        6.51077395616908
                                    ],
                                    "data": 1
                                }
                            ],
                            "r": [
                                {
                                    "vector": [
                                        16.220287535556608,
                                        2.127013954828474,
                                        17.78209737718128,
                                        11.948381367461192,
                                        14.464160821226058
                                    ],
                                    "data": 6
                                }
                            ]
                        },
                        "r": {
                            "h": {
                                "w": [
                                    -7.7575187703434745,
                                    36.058246740651704,
                                    -46.886734368481555,
                                    -20.266537698014886,
                                    87.14533487888252
                                ],
                                "b": 1664.1734797428408
                            },
                            "l": [
                                {
                                    "vector": [
                                        2.1992641496311105,
                                        7.355568363720764,
                                        28.73639387847998,
                                        32.70167011191434,
                                        39.08273511586568
                                    ],
                                    "data": 7
                                }
                            ],
                            "r": [
                                {
                                    "vector": [
                                        2.6763054128913044,
                                        11.887797578702504,
                                        2.8502908169981733,
                                        16.18075001342512,
                                        19.944648930543913
                                    ],
                                    "data": 4
                                }
                            ]
                        }
                    }
                },
                "r": [
                    {
                        "vector": [
                            4.964605236921251,
                            35.28310700571133,
                            6.010603168865449,
                            26.178194884135742,
                            8.45426901990515
                        ],
                        "data": 2
                    }
                ]
            }
        }
    ],
    "dimensions": 5,
    "maxValues": 2
}